key!0.0179342 -0.00586184 -0.175341 -0.0137597 0.034045 0.0447174 0.0123899 -0.00257363 -0.0148186 -0.0392649 -0.00921214 0.0517104 0.057726 0.0571885 0.0450061 -0.0535775 0.0287936 -0.0471962 -0.0390452 0.0269264 0.00936012 -0.0667443 0.00494736 -0.00587863 0.172234 -0.00440283 0.0186858 0.0833698 0.00160305 -0.0225142 0.0203444 -0.0187366 0.0153276 0.00319782 0.0275556 -0.0187361 -0.00382204 0.011286 0.0161749 0.0192788 -0.0176344 -0.00961741 0.00924707 -0.0283063 0.051377 0.00728638 -0.0221102 0.013347 0.0536732 -0.0434581 -0.00400506 -0.00417065 -0.0221646 0.0423872 0.0334844 0.054983 0.0578732 0.0204194 0.0217759 0.0257107 0.0377922 0.0473555 0.0194015 0.0702674 -0.00265264 -0.0320297 -0.0107931 0.0377696 0.0476476 -0.00417031 0.0718067 0.00267369 0.0188752 -0.00246889 0.0150482 0.0206154 0.00577525 -0.0289949 -0.0248175 -0.0379411 0.0303071 -0.0614816 0.0731465 -0.057464 0.0164311 -0.0311332 -0.0186686 -0.000232156 -0.0520466 0.00691788 0.0494779 0.00641454 -0.0116888 0.0372665 -0.038328 0.00597148 -0.0314706 0.000532049 -0.0517793 -0.0560203 -0.00571192 0.0193875 -0.00460303 0.00888063 0.057617 0.0431333 -0.0369466 -0.0383486 -0.037707 -0.0304475 -0.0537165 0.0237289 -0.0120977 0.00451287 0.000449957 0.00462701 0.0394207 -0.0952405 0.0405164 0.0384654 -0.0713952 0.0106326 0.00500779 0.0397249 0.0265005 0.0491462 -0.0903045 -0.0149673 -0.00445723 0.0105206 0.0065928 -0.0344949 -0.00939034 -0.0342111 0.034761 0.0097295 -0.040346 -0.0216567 0.0367294 0.00972109 0.0202699 0.0185151 0.0232946 -0.0495034 -0.0355353 -0.0304452 0.0750384 -0.0482665 0.0173923 -0.00727201 0.0142759 0.039322 0.0217988 0.00382733 0.0263449 -0.0169493 -0.0126325 0.000335253 0.0387659 -0.0307918 0.0106623 -0.0329661 -0.0473326 0.00772045 -0.00894778 -0.0582739 0.0018294 0.0412538 0.0459889 0.040138 -0.0126392 -0.0459756 -0.0111174 -0.00269074 -0.00323027 0.0042539 -0.00824531 -0.0638628 0.0247837 -0.0118394 0.0198449 -0.0580381 0.0285924 0.0312745 -0.0382147 -0.0209382 0.00262089 0.0123721 -0.0154471 -0.0265989 -0.0313748 0.00693118 -0.0590206 -0.0377501 -0.0111241 -0.017168 0.0261855 0.016309 0.0554324 -0.0305168 -0.050789 -0.0121232 -0.00417687 0.00170855 0.0149427 0.0970577 0.029205 0.0282288 0.034417 0.018869 0.0854126 -0.0616141 -0.0342933 -0.0192116 -0.00321627 0.00192871 0.0277981 -0.0295858 0.00228514 0.0248982 0.025106 -0.0406828 0.0212022 -0.00976683 0.0465839 -0.0233834 -0.0142664 0.000102549 -0.0729797 0.0194377 -0.05584 -0.0501398 0.0309419 0.0204443 -0.00712586 0.0218702 0.0452683 0.064179 -0.0080019 -0.0272986 -0.0299084 0.0478701 0.0406736 0.00472408 -0.0662443 0.0253225 -0.0176228 0.00753787 0.00543985 0.00505161 -0.0188862 -0.0092078 -0.0342379 0.0315285 0.0339095 -0.0425317 -0.0369512 0.0245181 -0.0244749 -0.0442759 0.0265853 -0.0930683 0.0181568 -0.060442 -0.0508538 0.0173142 -0.0482813 0.00839168 0.0434198 -0.034063 0.00131885 0.0131923 0.0152297 0.0350549 -0.0312535 -0.000183633 0.00552082 0.0201672 -0.0412452 -0.00938609 -0.0181837 -0.0431154 -0.0592647 -0.0267508 0.00499771 0.0449357 0.0229657 0.0295738 -0.00989797 0.0113696 0.0240958 0.0131228 0.0269231 0.0652958 -0.0262423 0.00280104 0.0282685 0.0179736 -0.0383315 -0.0129559 -0.0224635 0.0464426 0.0544272 -0.0344791 -0.00329587 0.00439272 0.0304103 -0.0232367 0.0566863 0.0185565 -0.0706568 0.0381924 -0.0651513 6.83468e+06 -0.0397481 0.0259483 -0.00898526 0.0358387 0.0751296 0.0464862 -0.0212059 -0.0489069 -0.00600518 -0.0494623 0.0164332 0.0202632 0.0260791 0.0614987 0.0341047 -0.02711 0.0239966 0.0116608 -0.0482406 -0.0271661 -0.0283067 0.036494 0.0106956 -0.00518327 -0.0263848 0.0739183 0.0216798 -0.0245296 0.0241525 -0.0201892 -0.0241695 -0.038728 -0.0171443 0.00267625 -0.0263269 -0.0106948 -0.0186372 0.0470746 -0.0311875 0.0276555 0.0134285 -0.000339482 0.0322525 0.0392783 0.0137739 -0.0261056 -0.00531346 -0.0122257 0.0354544 -0.00610969 -0.0391242 0.0286427 0.014047 0.00857999 0.0343404 0.0128766 -0.0441205 -0.0233016 -0.00697704 0.0344172 0.0389017 0.0155988 -0.0840505 -0.0387401 0.0141923 0.00751697 -0.0131566 -0.0110929 0.0406851 -0.038298 0.0398064 0.0482554 0.038266 0.00257433 0.00423165 0.008867 -0.00133773 -0.00134318 -0.0151733 0.0154745 -0.0119641 -0.00224609 0.0454492 0.011927 -0.0225002 -0.0048984 -0.0296296 0.00239006 0.0102882 -0.0808004 0.00668275 0.0135155 -0.0318877 -0.0275511 -0.00248279 -0.0282157 0.0557414 0.00151374 0.0147273 -0.0436708 -0.00420853 0.0147194 0.0439669 -0.0414881 -0.0299433 0.0192881 0.0456116 0.0506211 0.0261102 0.00162171 -0.0132856 0.0770931 0.0200821 0.0433853 0.0201887 -0.0643551 -0.00714281 0.00336455 0.039485 0.0290967 -0.033248 -0.0291128 0.0152667 -0.0161131 0.0104102 0.0229311 0.0576388 -0.0246339 -0.0739516 0.00212583 0.0303375 0.117349 0.0991721 -0.0352522 -0.0642068 -0.015747 0.013323 0.0210137 0.0184579 0.00671476 0.0822809 -0.0593718 0.0450094 -0.00575714 0.0102509 0.0295354 0.0314855 0.0226505 -0.0162184 0.00110856 -0.0043737 -0.0524412 0.0113968 -0.00807558 0.00329447 0.0356872 -0.0602659 -0.0325323 0.014917 -0.0279271 -0.039694 0.0207725 0.00939417 -0.0178813 0.00352996 0.0360817 0.0107512 0.0114024 -0.0666176 -0.0200515 0.0156535 0.0480522 -0.000531017 0.0310031 0.0120058 0.0213 0.0261002 0.00616893 0.027865 0.0120165 -0.00649279 -0.010412 -0.0620194 0.0359075 -0.0257352 -0.016476 0.00501268 0.0118721 -0.00908459 0.0239198 0.00610809 0.00512557 0.0289894 -0.0771406 -0.01941 0.00592982 -0.0108097 0.0109316 -0.00610785 0.0388173 0.0634796 -0.0420103 0.0317319 -0.0173783 -0.0441142 0.0747288 -0.00462544 -0.0663404 0.00230445 0.0143918 -0.0811028 0.0580987 -0.00984468 -0.0104868 0.0430894 0.0151734 -0.00103999 0.0018305 -0.0236166 -0.0519023 -0.00127494 -0.00911945 -0.0198125 0.0366785 0.004769 0.00951305 -0.0548987 0.0209394 -0.00434081 -0.0174304 0.0398605 0.0337623 -0.0336812 -0.0117061 0.0249588 -0.00358013 -0.023092 -0.0565203 -0.00423247 -0.0416378 -0.0409609 -0.0730076 -0.0159498 0.0109486 -0.026887 -0.0537143 0.0754139 0.0282657 -3.02857e-05 -0.00811895 0.0323366 -0.0183981 0.00632671 -0.0352792 -0.00268726 -0.0217824 -0.0162471 -0.0556989 0.0510699 -0.0411352 -0.00173466 0.0170317 0.0314201 -0.00261572 -0.0740926 -0.0255508 -0.00470503 -0.0140527 -0.0238345 0.0537351 -0.00973831 0.0195355 0.00280733 -0.0522539 0.0540964 -0.0169403 -0.006547 0.00334195 0.0306169 -0.0265574 -0.0174268 0.0629944 -0.0107979 -0.0616992 -0.0187385 -0.0159254 -0.0290649 0.00230252 0.0618653 -0.0447895 -0.010259 0.0764028 0.0376948 0.044368 0.00630214 -0.00617823 0.0624368 0.0347484 -0.0302874 0.0162446 0.0465586 -0.0152005 -0.0144978 -0.0133269 0.0159747 -0.0461813 -0.0328754 -0.0261709 0.0464901 0.0102108 0.025561 -0.0247138 -0.0405738 -0.0430243 -0.0334374 0.0521295 0.0230284 -0.0430296 -0.0956744 -0.0141517 0.00317296 0.02684 0.0337129 0.00455021 0.00274389 0.0347733 0.0981334 -0.0118827 0.0301497 0.0115072 0.0478998 -0.0198161 0.0271633 0.020352 0.0384484 0.0100261 0.0599652 0.0396861 0.024605 0.0215902 -0.00312923 -0.0241125 0.018261 -0.0177114 -0.0873306 0.0225154 -0.0240132 0.0163648 -0.0906501 -0.067961 0.0415405 -0.0126563 -0.0131422 0.0302028 -0.0716987 -0.00536263 -0.0110725 -0.0282746 -0.0147178 -0.039149 -0.0580352 0.0521801 0.0494842 0.016639 0.0406513 -0.00718894 -0.011912 -0.0142287 -0.0107786 0.0462199 0.0309354 -0.068763 0.0593628 0.00210522 -0.0501066 -0.0852889 -0.00315373 -0.0534005 -0.00915373 -0.00304493 -0.036381 -0.00152549 -0.0205207 0.0281553 -0.0320793 0.0518116 -0.0582714 -0.010638 0.00497594 0.0225459 -0.0143091 -0.0135617 -0.00407195 0.0346204 -0.0413215 -0.000343663 -0.0121543 0.0469817 0.00969427 0.059449 0.0105976 0.00465124 -0.038038 -0.00281405 -0.00773013 0.0618235 0.0855532 0.0178083 -0.0510097 -0.022315 -0.0362426 0.000541338 0.0226763 -0.0296168 0.00633184 -0.03455 -0.0134418 -0.0183699 -0.0597928 0.0456663 -0.0167451 0.00720341 -0.000272122 -0.0756903 -0.0104359 -0.0116285 -0.0458182 -0.0707984 -0.00167797 0.0904077 -0.00105185 -0.0461024 0.0307262 0.032588 -0.0213682 -0.00718442 0.0295953 -0.00460871 -0.0163304 -0.0154146 0.0285532 0.0118398 -0.00730339 0.0458922 0.0576625 -0.0306932 0.0487499 -0.0101525 0.0156452 0.0265445 0.00215715 -0.0141444 -0.0769042 |
key!0.0179342 -0.00586184 -0.175341 -0.0137597 0.034045 0.0447174 0.0123899 -0.00257363 -0.0148186 -0.0392649 -0.00921214 0.0517104 0.057726 0.0571885 0.0450061 -0.0535775 0.0287936 -0.0471962 -0.0390452 0.0269264 0.00936012 -0.0667443 0.00494736 -0.00587863 0.172234 -0.00440283 0.0186858 0.0833698 0.00160305 -0.0225142 0.0203444 -0.0187366 0.0153276 0.00319782 0.0275556 -0.0187361 -0.00382204 0.011286 0.0161749 0.0192788 -0.0176344 -0.00961741 0.00924707 -0.0283063 0.051377 0.00728638 -0.0221102 0.013347 0.0536732 -0.0434581 -0.00400506 -0.00417065 -0.0221646 0.0423872 0.0334844 0.054983 0.0578732 0.0204194 0.0217759 0.0257107 0.0377922 0.0473555 0.0194015 0.0702674 -0.00265264 -0.0320297 -0.0107931 0.0377696 0.0476476 -0.00417031 0.0718067 0.00267369 0.0188752 -0.00246889 0.0150482 0.0206154 0.00577525 -0.0289949 -0.0248175 -0.0379411 0.0303071 -0.0614816 0.0731465 -0.057464 0.0164311 -0.0311332 -0.0186686 -0.000232156 -0.0520466 0.00691788 0.0494779 0.00641454 -0.0116888 0.0372665 -0.038328 0.00597148 -0.0314706 0.000532049 -0.0517793 -0.0560203 -0.00571192 0.0193875 -0.00460303 0.00888063 0.057617 0.0431333 -0.0369466 -0.0383486 -0.037707 -0.0304475 -0.0537165 0.0237289 -0.0120977 0.00451287 0.000449957 0.00462701 0.0394207 -0.0952405 0.0405164 0.0384654 -0.0713952 0.0106326 0.00500779 0.0397249 0.0265005 0.0491462 -0.0903045 -0.0149673 -0.00445723 0.0105206 0.0065928 -0.0344949 -0.00939034 -0.0342111 0.034761 0.0097295 -0.040346 -0.0216567 0.0367294 0.00972109 0.0202699 0.0185151 0.0232946 -0.0495034 -0.0355353 -0.0304452 0.0750384 -0.0482665 0.0173923 -0.00727201 0.0142759 0.039322 0.0217988 0.00382733 0.0263449 -0.0169493 -0.0126325 0.000335253 0.0387659 -0.0307918 0.0106623 -0.0329661 -0.0473326 0.00772045 -0.00894778 -0.0582739 0.0018294 0.0412538 0.0459889 0.040138 -0.0126392 -0.0459756 -0.0111174 -0.00269074 -0.00323027 0.0042539 -0.00824531 -0.0638628 0.0247837 -0.0118394 0.0198449 -0.0580381 0.0285924 0.0312745 -0.0382147 -0.0209382 0.00262089 0.0123721 -0.0154471 -0.0265989 -0.0313748 0.00693118 -0.0590206 -0.0377501 -0.0111241 -0.017168 0.0261855 0.016309 0.0554324 -0.0305168 -0.050789 -0.0121232 -0.00417687 0.00170855 0.0149427 0.0970577 0.029205 0.0282288 0.034417 0.018869 0.0854126 -0.0616141 -0.0342933 -0.0192116 -0.00321627 0.00192871 0.0277981 -0.0295858 0.00228514 0.0248982 0.025106 -0.0406828 0.0212022 -0.00976683 0.0465839 -0.0233834 -0.0142664 0.000102549 -0.0729797 0.0194377 -0.05584 -0.0501398 0.0309419 0.0204443 -0.00712586 0.0218702 0.0452683 0.064179 -0.0080019 -0.0272986 -0.0299084 0.0478701 0.0406736 0.00472408 -0.0662443 0.0253225 -0.0176228 0.00753787 0.00543985 0.00505161 -0.0188862 -0.0092078 -0.0342379 0.0315285 0.0339095 -0.0425317 -0.0369512 0.0245181 -0.0244749 -0.0442759 0.0265853 -0.0930683 0.0181568 -0.060442 -0.0508538 0.0173142 -0.0482813 0.00839168 0.0434198 -0.034063 0.00131885 0.0131923 0.0152297 0.0350549 -0.0312535 -0.000183633 0.00552082 0.0201672 -0.0412452 -0.00938609 -0.0181837 -0.0431154 -0.0592647 -0.0267508 0.00499771 0.0449357 0.0229657 0.0295738 -0.00989797 0.0113696 0.0240958 0.0131228 0.0269231 0.0652958 -0.0262423 0.00280104 0.0282685 0.0179736 -0.0383315 -0.0129559 -0.0224635 0.0464426 0.0544272 -0.0344791 -0.00329587 0.00439272 0.0304103 -0.0232367 0.0566863 0.0185565 -0.0706568 0.0381924 -0.0651513 6.83468e+06 -0.0397481 0.0259483 -0.00898526 0.0358387 0.0751296 0.0464862 -0.0212059 -0.0489069 -0.00600518 -0.0494623 0.0164332 0.0202632 0.0260791 0.0614987 0.0341047 -0.02711 0.0239966 0.0116608 -0.0482406 -0.0271661 -0.0283067 0.036494 0.0106956 -0.00518327 -0.0263848 0.0739183 0.0216798 -0.0245296 0.0241525 -0.0201892 -0.0241695 -0.038728 -0.0171443 0.00267625 -0.0263269 -0.0106948 -0.0186372 0.0470746 -0.0311875 0.0276555 0.0134285 -0.000339482 0.0322525 0.0392783 0.0137739 -0.0261056 -0.00531346 -0.0122257 0.0354544 -0.00610969 -0.0391242 0.0286427 0.014047 0.00857999 0.0343404 0.0128766 -0.0441205 -0.0233016 -0.00697704 0.0344172 0.0389017 0.0155988 -0.0840505 -0.0387401 0.0141923 0.00751697 -0.0131566 -0.0110929 0.0406851 -0.038298 0.0398064 0.0482554 0.038266 0.00257433 0.00423165 0.008867 -0.00133773 -0.00134318 -0.0151733 0.0154745 -0.0119641 -0.00224609 0.0454492 0.011927 -0.0225002 -0.0048984 -0.0296296 0.00239006 0.0102882 -0.0808004 0.00668275 0.0135155 -0.0318877 -0.0275511 -0.00248279 -0.0282157 0.0557414 0.00151374 0.0147273 -0.0436708 -0.00420853 0.0147194 0.0439669 -0.0414881 -0.0299433 0.0192881 0.0456116 0.0506211 0.0261102 0.00162171 -0.0132856 0.0770931 0.0200821 0.0433853 0.0201887 -0.0643551 -0.00714281 0.00336455 0.039485 0.0290967 -0.033248 -0.0291128 0.0152667 -0.0161131 0.0104102 0.0229311 0.0576388 -0.0246339 -0.0739516 0.00212583 0.0303375 0.117349 0.0991721 -0.0352522 -0.0642068 -0.015747 0.013323 0.0210137 0.0184579 0.00671476 0.0822809 -0.0593718 0.0450094 -0.00575714 0.0102509 0.0295354 0.0314855 0.0226505 -0.0162184 0.00110856 -0.0043737 -0.0524412 0.0113968 -0.00807558 0.00329447 0.0356872 -0.0602659 -0.0325323 0.014917 -0.0279271 -0.039694 0.0207725 0.00939417 -0.0178813 0.00352996 0.0360817 0.0107512 0.0114024 -0.0666176 -0.0200515 0.0156535 0.0480522 -0.000531017 0.0310031 0.0120058 0.0213 0.0261002 0.00616893 0.027865 0.0120165 -0.00649279 -0.010412 -0.0620194 0.0359075 -0.0257352 -0.016476 0.00501268 0.0118721 -0.00908459 0.0239198 0.00610809 0.00512557 0.0289894 -0.0771406 -0.01941 0.00592982 -0.0108097 0.0109316 -0.00610785 0.0388173 0.0634796 -0.0420103 0.0317319 -0.0173783 -0.0441142 0.0747288 -0.00462544 -0.0663404 0.00230445 0.0143918 -0.0811028 0.0580987 -0.00984468 -0.0104868 0.0430894 0.0151734 -0.00103999 0.0018305 -0.0236166 -0.0519023 -0.00127494 -0.00911945 -0.0198125 0.0366785 0.004769 0.00951305 -0.0548987 0.0209394 -0.00434081 -0.0174304 0.0398605 0.0337623 -0.0336812 -0.0117061 0.0249588 -0.00358013 -0.023092 -0.0565203 -0.00423247 -0.0416378 -0.0409609 -0.0730076 -0.0159498 0.0109486 -0.026887 -0.0537143 0.0754139 0.0282657 -3.02857e-05 -0.00811895 0.0323366 -0.0183981 0.00632671 -0.0352792 -0.00268726 -0.0217824 -0.0162471 -0.0556989 0.0510699 -0.0411352 -0.00173466 0.0170317 0.0314201 -0.00261572 -0.0740926 -0.0255508 -0.00470503 -0.0140527 -0.0238345 0.0537351 -0.00973831 0.0195355 0.00280733 -0.0522539 0.0540964 -0.0169403 -0.006547 0.00334195 0.0306169 -0.0265574 -0.0174268 0.0629944 -0.0107979 -0.0616992 -0.0187385 -0.0159254 -0.0290649 0.00230252 0.0618653 -0.0447895 -0.010259 0.0764028 0.0376948 0.044368 0.00630214 -0.00617823 0.0624368 0.0347484 -0.0302874 0.0162446 0.0465586 -0.0152005 -0.0144978 -0.0133269 0.0159747 -0.0461813 -0.0328754 -0.0261709 0.0464901 0.0102108 0.025561 -0.0247138 -0.0405738 -0.0430243 -0.0334374 0.0521295 0.0230284 -0.0430296 -0.0956744 -0.0141517 0.00317296 0.02684 0.0337129 0.00455021 0.00274389 0.0347733 0.0981334 -0.0118827 0.0301497 0.0115072 0.0478998 -0.0198161 0.0271633 0.020352 0.0384484 0.0100261 0.0599652 0.0396861 0.024605 0.0215902 -0.00312923 -0.0241125 0.018261 -0.0177114 -0.0873306 0.0225154 -0.0240132 0.0163648 -0.0906501 -0.067961 0.0415405 -0.0126563 -0.0131422 0.0302028 -0.0716987 -0.00536263 -0.0110725 -0.0282746 -0.0147178 -0.039149 -0.0580352 0.0521801 0.0494842 0.016639 0.0406513 -0.00718894 -0.011912 -0.0142287 -0.0107786 0.0462199 0.0309354 -0.068763 0.0593628 0.00210522 -0.0501066 -0.0852889 -0.00315373 -0.0534005 -0.00915373 -0.00304493 -0.036381 -0.00152549 -0.0205207 0.0281553 -0.0320793 0.0518116 -0.0582714 -0.010638 0.00497594 0.0225459 -0.0143091 -0.0135617 -0.00407195 0.0346204 -0.0413215 -0.000343663 -0.0121543 0.0469817 0.00969427 0.059449 0.0105976 0.00465124 -0.038038 -0.00281405 -0.00773013 0.0618235 0.0855532 0.0178083 -0.0510097 -0.022315 -0.0362426 0.000541338 0.0226763 -0.0296168 0.00633184 -0.03455 -0.0134418 -0.0183699 -0.0597928 0.0456663 -0.0167451 0.00720341 -0.000272122 -0.0756903 -0.0104359 -0.0116285 -0.0458182 -0.0707984 -0.00167797 0.0904077 -0.00105185 -0.0461024 0.0307262 0.032588 -0.0213682 -0.00718442 0.0295953 -0.00460871 -0.0163304 -0.0154146 0.0285532 0.0118398 -0.00730339 0.0458922 0.0576625 -0.0306932 0.0487499 -0.0101525 0.0156452 0.0265445 0.00215715 -0.0141444 -0.0769042 |
